digraph Tree {
node [shape=box, style="filled, rounded", color="black", fontname=helvetica] ;
edge [fontname=helvetica] ;
0 [label="Uniformity of Cell Size <= 2.5\ngini = 0.44\nsamples = 100.0%\nvalue = [0.67, 0.33]\nclass = cancer", fillcolor="#e5813980"] ;
1 [label="Bare Nuclei <= 5.5\n0.05\n63.1%\n[0.97, 0.03]\ncancer", fillcolor="#e58139f8"] ;
0 -> 1 [labeldistance=2.5, labelangle=45, headlabel="True"] ;
2 [label="Bland Chromatin <= 6.0\n0.01\n61.6%\n[1.0, 0.0]\ncancer", fillcolor="#e58139fe"] ;
1 -> 2 ;
3 [label="0.0\n61.0%\n[1.0, 0.0]\ncancer", fillcolor="#e58139ff"] ;
2 -> 3 ;
4 [label="Uniformity of Cell Size <= 1.5\n0.5\n0.6%\n[0.5, 0.5]\ncancer", fillcolor="#e5813900"] ;
2 -> 4 ;
5 [label="0.0\n0.3%\n[1.0, 0.0]\ncancer", fillcolor="#e58139ff"] ;
4 -> 5 ;
6 [label="0.0\n0.3%\n[0.0, 1.0]\nno cancer", fillcolor="#399de5ff"] ;
4 -> 6 ;
7 [label="0.0\n1.5%\n[0.0, 1.0]\nno cancer", fillcolor="#399de5ff"] ;
1 -> 7 ;
8 [label="Uniformity of Cell Size <= 4.5\n0.24\n36.9%\n[0.14, 0.86]\nno cancer", fillcolor="#399de5d6"] ;
0 -> 8 [labeldistance=2.5, labelangle=-45, headlabel="False"] ;
9 [label="Uniformity of Cell Shape <= 2.5\n0.45\n13.4%\n[0.34, 0.66]\nno cancer", fillcolor="#399de57a"] ;
8 -> 9 ;
10 [label="Bland Chromatin <= 3.5\n0.34\n2.9%\n[0.79, 0.21]\ncancer", fillcolor="#e58139b9"] ;
9 -> 10 ;
11 [label="0.0\n2.3%\n[1.0, 0.0]\ncancer", fillcolor="#e58139ff"] ;
10 -> 11 ;
12 [label="0.0\n0.6%\n[0.0, 1.0]\nno cancer", fillcolor="#399de5ff"] ;
10 -> 12 ;
13 [label="Bare Nuclei <= 7.5\n0.36\n10.5%\n[0.23, 0.77]\nno cancer", fillcolor="#399de5b2"] ;
9 -> 13 ;
14 [label="Marginal Adhesion <= 3.5\n0.48\n4.9%\n[0.39, 0.61]\nno cancer", fillcolor="#399de55b"] ;
13 -> 14 ;
15 [label="0.48\n2.6%\n[0.6, 0.4]\ncancer", fillcolor="#e5813955"] ;
14 -> 15 ;
16 [label="0.36\n2.3%\n[0.23, 0.77]\nno cancer", fillcolor="#399de5b3"] ;
14 -> 16 ;
17 [label="Mitoses <= 2.5\n0.21\n5.5%\n[0.12, 0.88]\nno cancer", fillcolor="#399de5dc"] ;
13 -> 17 ;
18 [label="0.12\n4.9%\n[0.07, 0.93]\nno cancer", fillcolor="#399de5ed"] ;
17 -> 18 ;
19 [label="0.44\n0.6%\n[0.67, 0.33]\ncancer", fillcolor="#e581397f"] ;
17 -> 19 ;
20 [label="Marginal Adhesion <= 8.5\n0.06\n23.5%\n[0.03, 0.97]\nno cancer", fillcolor="#399de5f7"] ;
8 -> 20 ;
21 [label="Normal Nucleoli <= 2.5\n0.04\n17.7%\n[0.02, 0.98]\nno cancer", fillcolor="#399de5fa"] ;
20 -> 21 ;
22 [label="Bare Nuclei <= 9.0\n0.23\n2.6%\n[0.13, 0.87]\nno cancer", fillcolor="#399de5d8"] ;
21 -> 22 ;
23 [label="0.5\n0.6%\n[0.5, 0.5]\ncancer", fillcolor="#e5813900"] ;
22 -> 23 ;
24 [label="0.0\n2.0%\n[0.0, 1.0]\nno cancer", fillcolor="#399de5ff"] ;
22 -> 24 ;
25 [label="0.0\n15.1%\n[0.0, 1.0]\nno cancer", fillcolor="#399de5ff"] ;
21 -> 25 ;
26 [label="Uniformity of Cell Size <= 6.5\n0.15\n5.8%\n[0.08, 0.92]\nno cancer", fillcolor="#399de5e9"] ;
20 -> 26 ;
27 [label="Bare Nuclei <= -49999.0\n0.35\n1.7%\n[0.22, 0.78]\nno cancer", fillcolor="#399de5b6"] ;
26 -> 27 ;
28 [label="0.0\n0.3%\n[1.0, 0.0]\ncancer", fillcolor="#e58139ff"] ;
27 -> 28 ;
29 [label="0.0\n1.5%\n[0.0, 1.0]\nno cancer", fillcolor="#399de5ff"] ;
27 -> 29 ;
30 [label="0.0\n4.1%\n[0.0, 1.0]\nno cancer", fillcolor="#399de5ff"] ;
26 -> 30 ;
}